{"learner":{"attributes":{"scikit_learn":"{\"_estimator_type\": \"regressor\"}"},"feature_names":[],"feature_types":[],"gradient_booster":{"model":{"cats":{"enc":[],"feature_segments":[],"sorted_idx":[]},"gbtree_model_param":{"num_parallel_tree":"1","num_trees":"5"},"iteration_indptr":[0,1,2,3,4,5],"tree_info":[0,0,0,0,0],"trees":[{"base_weights":[7.8074756E-8,-3.3445087E-1,1.2646004E0,-7.143344E-1,1.4299E-2,8.6241084E-1,2.157467E0,-4.4698153E-2,-9.071237E-2,7.357087E-2,-1.8305266E-2,1.4227115E-1,5.491042E-2,1.6766824E-1,2.502606E-1],"categories":[],"categories_nodes":[],"categories_segments":[],"categories_sizes":[],"default_left":[0,0,0,0,0,0,0,0,0,0,0,0,0,0,0],"id":0,"left_children":[1,3,5,7,9,11,13,-1,-1,-1,-1,-1,-1,-1,-1],"loss_changes":[6.984543E3,1.7302559E3,1.2384761E3,3.2178833E2,9.6968396E2,4.1754456E2,1.7368896E2,0E0,0E0,0E0,0E0,0E0,0E0,0E0,0E0],"parents":[2147483647,0,0,1,1,2,2,3,3,4,4,5,5,6,6],"right_children":[2,4,6,8,10,12,14,-1,-1,-1,-1,-1,-1,-1,-1],"split_conditions":[5.0736E0,3.0714E0,6.828E0,4.314229E0,2.3433242E0,2.669708E0,7.8287E0,-4.4698153E-2,-9.071237E-2,7.357087E-2,-1.8305266E-2,1.4227115E-1,5.491042E-2,1.6766824E-1,2.502606E-1],"split_indices":[0,0,0,2,5,5,0,0,0,0,0,0,0,0,0],"split_type":[0,0,0,0,0,0,0,0,0,0,0,0,0,0,0],"sum_hessian":[1.6512E4,1.3059E4,3.453E3,6.25E3,6.809E3,2.382E3,1.071E3,2.62E3,3.63E3,1.462E3,5.347E3,8.53E2,1.529E3,4.5E2,6.21E2],"tree_param":{"num_deleted":"0","num_feature":"8","num_nodes":"15","size_leaf_vector":"1"}},{"base_weights":[3.2473512E-5,-2.4331436E-1,1.4159051E0,-6.167927E-1,1.0763247E-1,1.1032397E0,2.2055318E0,-8.148368E-3,-7.116739E-2,7.46251E-2,-8.935369E-3,8.239808E-2,1.5901972E-1,1.8120126E-1,2.3741555E-1],"categories":[],"categories_nodes":[],"categories_segments":[],"categories_sizes":[],"default_left":[0,0,0,0,0,0,0,0,0,0,0,0,0,0,0],"id":1,"left_children":[1,3,5,7,9,11,13,-1,-1,-1,-1,-1,-1,-1,-1],"loss_changes":[5.6898677E3,1.8471193E3,5.9553174E2,3.4669043E2,9.141222E2,2.3489941E2,4.1218994E1,0E0,0E0,0E0,0E0,0E0,0E0,0E0,0E0],"parents":[2147483647,0,0,1,1,2,2,3,3,4,4,5,5,6,6],"right_children":[2,4,6,8,10,12,14,-1,-1,-1,-1,-1,-1,-1,-1],"split_conditions":[5.5942E0,3.1875E0,7.6659E0,2.1589403E0,2.4022038E0,2.8E1,1.9E1,-8.148368E-3,-7.116739E-2,7.46251E-2,-8.935369E-3,8.239808E-2,1.5901972E-1,1.8120126E-1,2.3741555E-1],"split_indices":[0,0,0,5,5,1,1,0,0,0,0,0,0,0,0],"split_type":[0,0,0,0,0,0,0,0,0,0,0,0,0,0,0],"sum_hessian":[1.6512E4,1.4091E4,2.421E3,6.826E3,7.265E3,1.736E3,6.85E2,1.028E3,5.798E3,1.712E3,5.553E3,1.105E3,6.31E2,2.09E2,4.76E2],"tree_param":{"num_deleted":"0","num_feature":"8","num_nodes":"15","size_leaf_vector":"1"}},{"base_weights":[6.839082E-5,-2.812373E-1,1.016021E0,-6.497266E-1,-4.2242303E-2,6.521238E-1,1.6817396E0,-2.9222658E-2,-7.915863E-2,6.1443824E-2,-1.8744942E-2,1.0762645E-1,3.3987958E-2,1.4303844E-1,2.1682258E-1],"categories":[],"categories_nodes":[],"categories_segments":[],"categories_sizes":[],"default_left":[0,0,0,0,0,0,0,0,0,0,0,0,0,0,0],"id":2,"left_children":[1,3,5,7,9,11,13,-1,-1,-1,-1,-1,-1,-1,-1],"loss_changes":[4.7195903E3,1.1389443E3,8.664116E2,2.578059E2,7.48268E2,3.064873E2,1.5158398E2,0E0,0E0,0E0,0E0,0E0,0E0,0E0,0E0],"parents":[2147483647,0,0,1,1,2,2,3,3,4,4,5,5,6,6],"right_children":[2,4,6,8,10,12,14,-1,-1,-1,-1,-1,-1,-1,-1],"split_conditions":[5.0253E0,2.7813E0,6.5891E0,3.8976834E0,2.2690125E0,2.7457628E0,8.4411E0,-2.9222658E-2,-7.915863E-2,6.1443824E-2,-1.8744942E-2,1.0762645E-1,3.3987958E-2,1.4303844E-1,2.1682258E-1],"split_indices":[0,0,0,2,5,5,0,0,0,0,0,0,0,0,0],"split_type":[0,0,0,0,0,0,0,0,0,0,0,0,0,0,0],"sum_hessian":[1.6512E4,1.2932E4,3.58E3,5.087E3,7.845E3,2.316E3,1.264E3,1.446E3,3.641E3,1.42E3,6.425E3,9.81E2,1.335E3,8.36E2,4.28E2],"tree_param":{"num_deleted":"0","num_feature":"8","num_nodes":"15","size_leaf_vector":"1"}},{"base_weights":[8.794189E-5,-3.091718E-1,7.673702E-1,-6.602591E-1,-1.3729848E-1,4.526792E-1,1.4332584E0,-1.774531E-2,-7.6818906E-2,4.136245E-2,-2.854216E-2,8.720927E-2,2.0838235E-2,1.151792E-1,1.8386732E-1],"categories":[],"categories_nodes":[],"categories_segments":[],"categories_sizes":[],"default_left":[0,0,0,0,0,0,0,0,0,0,0,0,0,0,0],"id":3,"left_children":[1,3,5,7,9,11,13,-1,-1,-1,-1,-1,-1,-1,-1],"loss_changes":[3.9185989E3,7.10141E2,9.9345166E2,2.0142212E2,6.450377E2,3.3005133E2,1.7155884E2,0E0,0E0,0E0,0E0,0E0,0E0,0E0,0E0],"parents":[2147483647,0,0,1,1,2,2,3,3,4,4,5,5,6,6],"right_children":[2,4,6,8,10,12,14,-1,-1,-1,-1,-1,-1,-1,-1],"split_conditions":[4.5417E0,2.5125E0,6.2924E0,3.554517E0,2.3019416E0,2.6877055E0,7.8287E0,-1.774531E-2,-7.6818906E-2,4.136245E-2,-2.854216E-2,8.720927E-2,2.0838235E-2,1.151792E-1,1.8386732E-1],"split_indices":[0,0,0,2,5,5,0,0,0,0,0,0,0,0,0],"split_type":[0,0,0,0,0,0,0,0,0,0,0,0,0,0,0],"sum_hessian":[1.6512E4,1.1769E4,4.743E3,3.867E3,7.902E3,3.222E3,1.521E3,7.07E2,3.16E3,1.674E3,6.228E3,1.185E3,2.037E3,9E2,6.21E2],"tree_param":{"num_deleted":"0","num_feature":"8","num_nodes":"15","size_leaf_vector":"1"}},{"base_weights":[9.884875E-5,-3.3648777E-1,5.84233E-1,2.9004505E-1,-4.1422212E-1,3.4619975E-1,1.2901291E0,4.7364682E-2,-5.7512607E-2,-6.8117246E-2,-2.9588992E-2,6.868931E-2,8.585529E-3,1.0055616E-1,1.6662742E-1],"categories":[],"categories_nodes":[],"categories_segments":[],"categories_sizes":[],"default_left":[0,0,0,0,0,0,0,0,0,0,0,0,0,0,0],"id":4,"left_children":[1,3,5,7,9,11,13,-1,-1,-1,-1,-1,-1,-1,-1],"loss_changes":[3.246846E3,5.1038293E2,1.01393066E3,1.8405833E2,2.942378E2,4.0049945E2,1.6123755E2,0E0,0E0,0E0,0E0,0E0,0E0,0E0,0E0],"parents":[2147483647,0,0,1,1,2,2,3,3,4,4,5,5,6,6],"right_children":[2,4,6,8,10,12,14,-1,-1,-1,-1,-1,-1,-1,-1],"split_conditions":[4.125E0,2.0333333E0,6.2924E0,3.794E1,2.3333E0,2.7457628E0,2.7E1,4.7364682E-2,-5.7512607E-2,-6.8117246E-2,-2.9588992E-2,6.868931E-2,8.585529E-3,1.0055616E-1,1.6662742E-1],"split_indices":[0,5,0,6,0,5,1,0,0,0,0,0,0,0,0],"split_type":[0,0,0,0,0,0,0,0,0,0,0,0,0,0,0],"sum_hessian":[1.6512E4,1.0476E4,6.036E3,1.156E3,9.32E3,4.515E3,1.521E3,9.54E2,2.02E2,2.861E3,6.459E3,1.955E3,2.56E3,8.68E2,6.53E2],"tree_param":{"num_deleted":"0","num_feature":"8","num_nodes":"15","size_leaf_vector":"1"}}]},"name":"gbtree"},"learner_model_param":{"base_score":"[2.0719469E0]","boost_from_average":"1","num_class":"0","num_feature":"8","num_target":"1"},"objective":{"name":"reg:squarederror","reg_loss_param":{"scale_pos_weight":"1"}}},"version":[3,2,0]}